{
  "cma": {
    "mean": [
      0.8347192596343341,
      0.0835617135502706,
      0.36707868360229534,
      0.6072071687388217,
      2.0232074124144073,
      1.1111675343858052,
      0.38784296454610284,
      0.23363885671981055,
      0.6357033233329912,
      0.06562781950396038,
      0.020777605423144285,
      1.07387163607227,
      0.720970336602918
    ],
    "sigma": 0.006516024269201479,
    "pc": [
      -0.09916867120773074,
      0.48245410070092465,
      0.3009312567198522,
      0.8649636860946295,
      0.5590247169629579,
      0.8175850877581693,
      0.1145637841750585,
      -1.879678488856793,
      -0.7668084463193261,
      0.6423545508832954,
      -0.18682302518102045,
      0.5432732590394607,
      -0.022389206855558452
    ],
    "ps": [
      -0.9998369313156011,
      1.0129752759215578,
      0.8763072238858098,
      1.6369951332499806,
      -0.332137217011532,
      2.043353139923394,
      0.3884580266992587,
      -1.7735906501268857,
      -0.6153905340048739,
      0.5595622763887114,
      -0.3426117255809925,
      0.6274946878070626,
      0.06644904853312766
    ],
    "C": [
      [
        1.0042148698397741,
        0.0010599609284124242,
        0.14281035774790973,
        0.12600607461983016,
        0.2544056044659822,
        0.3499802061593721,
        -0.2649329568159541,
        -0.32263328448873335,
        -0.3709356398172762,
        -0.044364268011365685,
        -0.37549495072977623,
        -0.32308664034233986,
        -0.04908518201209858
      ],
      [
        0.0010599609284124242,
        0.1862639333463185,
        0.04111041721161647,
        0.022524039510058776,
        0.010825620787945094,
        0.028198018978721113,
        -0.03187790446916001,
        0.031654626688287016,
        -0.013381233966249606,
        -0.05597902064960816,
        -0.0630038870746073,
        -0.001219712541973676,
        -0.11551369042376608
      ],
      [
        0.14281035774790973,
        0.04111041721161647,
        0.28218186506834125,
        -0.1270765485449528,
        0.09334818145751116,
        0.07301416891522733,
        -0.04364328122012459,
        -0.06217941431776838,
        -0.1303014673923594,
        0.022850478096076605,
        -0.08822086711920311,
        -0.07938158547447378,
        -0.030721370643189003
      ],
      [
        0.12600607461983016,
        0.022524039510058776,
        -0.1270765485449528,
        0.3490352569653337,
        0.20999281991217686,
        0.13336688066255847,
        -0.07615024470548956,
        -0.13420312412123794,
        -0.03228319865559946,
        -0.05957886955748894,
        -0.0693617322087862,
        0.04891290584224707,
        -0.10665359492237507
      ],
      [
        0.2544056044659822,
        0.010825620787945094,
        0.09334818145751116,
        0.20999281991217686,
        0.7280720059614564,
        0.326392245007974,
        -0.10192195310881884,
        -0.19026161033227465,
        -0.18244063706810865,
        -0.08628573339537125,
        -0.19896676796045465,
        -0.013671735022075058,
        -0.045764352115299174
      ],
      [
        0.3499802061593721,
        0.028198018978721113,
        0.07301416891522733,
        0.13336688066255847,
        0.326392245007974,
        0.28958028244412604,
        -0.09238085267700279,
        -0.18190053647317636,
        -0.17458900909994832,
        -0.06617200559819801,
        -0.152953250589589,
        -0.0754828346361965,
        -0.06528144065054287
      ],
      [
        -0.2649329568159541,
        -0.03187790446916001,
        -0.04364328122012459,
        -0.07615024470548956,
        -0.10192195310881884,
        -0.09238085267700279,
        0.6356299746690055,
        0.05518066146950204,
        0.38552536086505745,
        -0.11540489903053808,
        0.20546289261464956,
        0.2313223190987121,
        0.0027578166114134097
      ],
      [
        -0.32263328448873335,
        0.031654626688287016,
        -0.06217941431776838,
        -0.13420312412123794,
        -0.19026161033227465,
        -0.18190053647317636,
        0.05518066146950204,
        1.0628931922590252,
        0.40038450038279844,
        -0.2849894665763202,
        -0.07278653097070079,
        0.0690357444297154,
        -0.07666748954048032
      ],
      [
        -0.3709356398172762,
        -0.013381233966249606,
        -0.1303014673923594,
        -0.03228319865559946,
        -0.18244063706810865,
        -0.17458900909994832,
        0.38552536086505745,
        0.40038450038279844,
        0.8993081729271175,
        -0.2235355905047303,
        0.26925724335326884,
        0.3562383081891652,
        -0.10669604191184023
      ],
      [
        -0.044364268011365685,
        -0.05597902064960816,
        0.022850478096076605,
        -0.05957886955748894,
        -0.08628573339537125,
        -0.06617200559819801,
        -0.11540489903053808,
        -0.2849894665763202,
        -0.2235355905047303,
        0.8621928156934786,
        -0.09303940419972465,
        -0.1666380583014784,
        0.628235133450873
      ],
      [
        -0.37549495072977623,
        -0.0630038870746073,
        -0.08822086711920311,
        -0.0693617322087862,
        -0.19896676796045465,
        -0.152953250589589,
        0.20546289261464956,
        -0.07278653097070079,
        0.26925724335326884,
        -0.09303940419972465,
        0.8276764095556454,
        0.3517638077785558,
        -0.258935382903985
      ],
      [
        -0.32308664034233986,
        -0.001219712541973676,
        -0.07938158547447378,
        0.04891290584224707,
        -0.013671735022075058,
        -0.0754828346361965,
        0.2313223190987121,
        0.0690357444297154,
        0.3562383081891652,
        -0.1666380583014784,
        0.3517638077785558,
        1.0796851423543685,
        -0.4715176520947609
      ],
      [
        -0.04908518201209858,
        -0.11551369042376608,
        -0.030721370643189003,
        -0.10665359492237507,
        -0.045764352115299174,
        -0.06528144065054287,
        0.0027578166114134097,
        -0.07666748954048032,
        -0.10669604191184023,
        0.628235133450873,
        -0.258935382903985,
        -0.4715176520947609,
        1.5839208740236825
      ]
    ],
    "B": [
      [
        -0.2570367830595259,
        -0.07441721565506276,
        0.06864891213522355,
        0.2028369559405344,
        -0.08941752272126123,
        0.2979691679878875,
        -0.23616049736295108,
        0.5737922671882647,
        0.3189564376099691,
        -0.10136978568119887,
        0.06798977545589327,
        0.3923914211798074,
        -0.36075687376857185
      ],
      [
        -0.16892119627593485,
        -0.2860954342915803,
        0.8693703519318884,
        -0.29931689080550644,
        -0.021590274836983614,
        -0.1375274973557585,
        0.09409178436650141,
        -0.00547109277246419,
        -0.06363864405436873,
        0.03893243946265215,
        0.07909168715689721,
        0.06277418170376593,
        0.013955931470310231
      ],
      [
        -0.017904905141211368,
        0.6701201149847246,
        0.09002882502578244,
        -0.2787170797165815,
        -0.23311796196670018,
        0.26667678263843747,
        0.5552058052491916,
        0.11898499442908612,
        0.014140286991458936,
        0.06304732698553853,
        0.026644944141922984,
        0.0724030475874699,
        -0.08265332919725915
      ],
      [
        -0.08188959646676078,
        0.6377778088522171,
        0.24999788667974532,
        0.15183256028350628,
        0.06513115154345236,
        -0.3175211128185244,
        -0.509117311200131,
        -0.1872162897637233,
        -0.09568316071038642,
        -0.2504639706394853,
        -0.056745222586831255,
        0.15919121037084574,
        -0.034929379301189
      ],
      [
        -0.31600763546715416,
        -0.20807386351829255,
        -0.12720787411649032,
        0.06658936766763018,
        -0.2744263774213529,
        0.11775524297825536,
        0.2333682753406246,
        -0.47127402449598293,
        -0.19623181250471444,
        -0.5662734507224012,
        -0.037140864233684595,
        0.28864131129595594,
        -0.1631764901425162
      ],
      [
        0.889764783557016,
        -0.07166879470652315,
        0.19174681888611525,
        0.08967722973480129,
        -0.10163221776938851,
        0.1054790086003173,
        0.019348657408906438,
        -0.040981066740488806,
        0.03695514183288951,
        -0.24159336587572694,
        -0.00650880696452431,
        0.2314118234024556,
        -0.1467575718007409
      ],
      [
        -0.05315153281930762,
        0.03744951612748072,
        0.14681167512368334,
        0.4960909453358865,
        0.17349447651548494,
        -0.2931294936220904,
        0.4519123860037103,
        0.10919250842783534,
        0.45993932960465606,
        -0.3082148413050527,
        -0.10187160902264232,
        -0.15662609705743633,
        0.23342959977016506
      ],
      [
        -0.009181387648685738,
        0.05438099882842183,
        0.12283373150856317,
        0.420582388750205,
        -0.11856942342196496,
        0.27163732572763793,
        -0.025577823338296588,
        0.015195546640403401,
        -0.28852566219600945,
        -0.005211560300004484,
        0.7330275732728714,
        -0.15140473285556819,
        0.2696720763535383
      ],
      [
        0.0325689123522882,
        -0.02480307417104481,
        -0.11360619112100974,
        -0.4060015001999906,
        -0.5197087367481932,
        -0.12529776237263668,
        -0.23919487067841705,
        0.1846774295734361,
        0.29673366363616926,
        -0.37942881052578264,
        0.13334575070912724,
        -0.1869876298536599,
        0.39837331340221166
      ],
      [
        0.00964962778590133,
        -0.035147251057198396,
        0.07743480377634919,
        0.32204466578406055,
        -0.5819573637353667,
        -0.22942185207367702,
        0.023481772850026374,
        0.242011288037,
        -0.35480129901790425,
        0.11226597341453114,
        -0.32108227708202436,
        -0.3528950426790633,
        -0.2691034612328215
      ],
      [
        -0.051656605923052074,
        0.02296146326954877,
        0.22162826109330988,
        0.2032414029125924,
        -0.2025164200304983,
        0.5647978219135562,
        -0.20005382267819488,
        -0.3225878427688231,
        0.2577100528497392,
        0.19912941379894278,
        -0.4312638689303646,
        -0.08537529183753369,
        0.3208423664736076
      ],
      [
        0.00374160183526616,
        -0.00861337043460549,
        0.017373330192760033,
        -0.05191159568707995,
        0.27246136732451043,
        0.2138319635040249,
        0.01884774233017235,
        0.4340007144575182,
        -0.5172696094593598,
        -0.3236212279331203,
        -0.35910605449142263,
        0.08913427035752038,
        0.42313517520060295
      ],
      [
        -0.00913219718957716,
        0.039333569929202235,
        0.10471137383950586,
        -0.14320071073736404,
        0.28130888428933315,
        0.32032161952199956,
        -0.10032213878567861,
        -0.022311828551052258,
        0.0477566580798819,
        -0.38274227338728234,
        0.015564862624891072,
        -0.6726446479789739,
        -0.41608910910408264
      ]
    ],
    "D": [
      0.2418167950666215,
      0.28182773268760797,
      0.4067885562229302,
      0.4877482232864094,
      0.5852663379383346,
      0.6266545240108671,
      0.6721487675061545,
      0.7313424981087291,
      0.823776265479485,
      0.9361453987922169,
      1.1012108455150587,
      1.4248726584142297,
      1.6702564324312998
    ],
    "invsqrtC": [
      [
        1.4019531015134457,
        0.16818924865169016,
        -0.15984730413362847,
        -0.06701339334368059,
        0.14101858071901033,
        -0.6949657075942199,
        0.15030971826354766,
        0.1933868113070932,
        0.059347802726911425,
        0.09905265207918251,
        0.24624333318446712,
        0.11931771934140442,
        0.05004430975585585
      ],
      [
        0.16818924865169016,
        2.509378583995598,
        -0.271466380193793,
        -0.15208875028873978,
        0.140014107799604,
        -0.21481629437548494,
        0.06819493257942627,
        -0.03300644613341447,
        -0.013445783374596882,
        0.06131557003398391,
        0.17595097201767007,
        0.025700815015452034,
        0.13196012127416115
      ],
      [
        -0.15984730413362847,
        -0.271466380193793,
        2.4711170735911567,
        0.8689852795527686,
        -0.2817086759154535,
        -0.14719009355597173,
        0.004355474096885575,
        0.052397554138545334,
        0.08517625805411871,
        -0.06915222281707721,
        0.08180355662796478,
        0.025629659963433943,
        0.09880562989376883
      ],
      [
        -0.06701339334368059,
        -0.15208875028873978,
        0.8689852795527685,
        2.373184052084033,
        -0.3557628358181545,
        -0.2970593173133913,
        0.15689303513346817,
        0.17181912949812772,
        -0.09285251824215499,
        0.030698174135990096,
        0.11708601542677599,
        -0.0633638130129774,
        0.09218480957459337
      ],
      [
        0.14101858071901027,
        0.140014107799604,
        -0.2817086759154536,
        -0.35576283581815443,
        1.6159159839732287,
        -0.8581828616243193,
        0.03951471518603947,
        0.06896683752364008,
        0.051472768371293304,
        0.09729674135744386,
        0.1325635131751215,
        -0.06394158077150709,
        -0.037556793762539
      ],
      [
        -0.69496570759422,
        -0.21481629437548494,
        -0.14719009355597168,
        -0.2970593173133913,
        -0.8581828616243193,
        3.5517650311133555,
        -0.06242895512939966,
        0.08812472201883952,
        0.0949430370360752,
        0.11305090900005817,
        0.009142287884979446,
        0.01923715020498694,
        0.010995800813090423
      ],
      [
        0.1503097182635476,
        0.06819493257942622,
        0.0043554740968855185,
        0.15689303513346817,
        0.03951471518603953,
        -0.0624289551293996,
        1.5004473615954215,
        0.13135476785945135,
        -0.33860715200522157,
        0.13125863871647367,
        -0.033339828145180876,
        -0.08998285146633951,
        -0.07082812431857892
      ],
      [
        0.19338681130709326,
        -0.033006446133414524,
        0.05239755413854539,
        0.17181912949812775,
        0.0689668375236401,
        0.08812472201883952,
        0.13135476785945124,
        1.2023124078140435,
        -0.25537229430601577,
        0.22047977411115874,
        0.21776019661213356,
        0.007250483801973906,
        0.0013472436366826445
      ],
      [
        0.05934780272691142,
        -0.013445783374596886,
        0.08517625805411871,
        -0.09285251824215501,
        0.0514727683712933,
        0.0949430370360752,
        -0.3386071520052215,
        -0.25537229430601577,
        1.3909301588770304,
        0.10003690277694575,
        -0.13578910027842336,
        -0.1516089652611578,
        -0.03526680681681545
      ],
      [
        0.09905265207918251,
        0.061315570033983885,
        -0.06915222281707717,
        0.03069817413599008,
        0.09729674135744386,
        0.11305090900005817,
        0.1312586387164737,
        0.22047977411115874,
        0.10003690277694588,
        1.3663619918747663,
        0.06039625451735214,
        -0.03624088082066549,
        -0.3251426346446911
      ],
      [
        0.246243333184467,
        0.17595097201767002,
        0.08180355662796467,
        0.11708601542677599,
        0.13256351317512152,
        0.00914228788497945,
        -0.03333982814518094,
        0.21776019661213358,
        -0.13578910027842336,
        0.06039625451735212,
        1.3579192700198153,
        -0.12634851544722342,
        0.12140465291882714
      ],
      [
        0.11931771934140446,
        0.025700815015452034,
        0.025629659963433943,
        -0.06336381301297739,
        -0.06394158077150709,
        0.019237150204986942,
        -0.08998285146633948,
        0.0072504838019739086,
        -0.1516089652611578,
        -0.0362408808206655,
        -0.12634851544722345,
        1.131027961218919,
        0.19233839864198696
      ],
      [
        0.050044309755855804,
        0.13196012127416112,
        0.09880562989376881,
        0.09218480957459335,
        -0.03755679376253901,
        0.010995800813090425,
        -0.07082812431857886,
        0.0013472436366826059,
        -0.035266806816815516,
        -0.3251426346446911,
        0.12140465291882706,
        0.19233839864198696,
        0.9700981663575617
      ]
    ],
    "eigeneval": 549,
    "gen": 550
  },
  "best_weights": [
    0.10672001004998122,
    0.009297677131444828,
    0.045923798677587106,
    0.0724031561878903,
    0.24547093441418422,
    0.13556291635181078,
    0.046634341565335725,
    0.03482302051033335,
    0.07952984385403293,
    0.005764632972586867,
    0.0008334221330518119,
    0.12905197187520426,
    0.08798427427655671
  ],
  "best_fitness": -11.52,
  "prediction": {
    "core_reds": [
      2,
      13,
      18,
      22,
      23,
      25
    ],
    "top_reds": [
      2,
      18,
      22,
      13,
      3,
      23,
      9,
      25,
      6,
      1,
      10,
      19,
      31,
      17,
      33,
      14
    ],
    "core_blue": 6,
    "top_blues": [
      6,
      1,
      16,
      8,
      10,
      12,
      15,
      4
    ],
    "best_score": 0.372218,
    "weights": {
      "freq": 0.1067,
      "gap": 0.0093,
      "pair": 0.0459,
      "pagerank": 0.0724,
      "markov": 0.2455,
      "rqa": 0.1356,
      "odd_even": 0.0466,
      "zone": 0.0348,
      "repeat": 0.0795,
      "consec": 0.0058,
      "persist": 0.0008,
      "sum": 0.1291,
      "span": 0.088
    },
    "weights_blue": {
      "freq": 0.0558,
      "gap": 0.4292,
      "markov": 0.4772,
      "trend": 0.0379
    }
  },
  "last_code": "2026033",
  "timestamp": "2026-03-28 17:37:44",
  "cma_blue": {
    "mean": [
      0.037546377105716795,
      2.310776962798104,
      1.3074062357124383,
      0.3139972142883547
    ],
    "sigma": 0.01737500094924975,
    "pc": [
      0.008959893933273094,
      0.023620471693758346,
      0.37031769662694264,
      -0.04815947951134382
    ],
    "ps": [
      -0.21983017514593994,
      -1.469108763532071,
      1.169035193842657,
      0.4529696420788497
    ],
    "C": [
      [
        0.010298603769380224,
        -0.036415542260434745,
        0.01896376624149387,
        0.0066937000075732766
      ],
      [
        -0.036415542260434745,
        0.2068925614286794,
        0.07064877661447411,
        -0.0527788851676903
      ],
      [
        0.01896376624149387,
        0.07064877661447411,
        0.5632061420230289,
        -0.021342539487112993
      ],
      [
        0.0066937000075732766,
        -0.0527788851676903,
        -0.021342539487112993,
        0.01875576151741727
      ]
    ],
    "B": [
      [
        -0.8357970010466088,
        -0.5115606340827094,
        0.19904242743722922,
        -0.011454378127445708
      ],
      [
        -0.2803682968642782,
        0.10332249466832093,
        -0.9252029655443205,
        -0.23391783334524502
      ],
      [
        0.0462550622374131,
        0.03776143328436699,
        0.23545632349863538,
        -0.970048897271797
      ],
      [
        -0.4697844828986286,
        0.8521761871284136,
        0.22122817260104186,
        0.06447000361835258
      ]
    ],
    "D": [
      0.02672382701639447,
      0.08438695479694545,
      0.4639778218456053,
      0.8093839490761553
    ],
    "invsqrtC": [
      [
        29.326514456071642,
        7.748673160399447,
        -1.560819282949589,
        9.62070409032144
      ],
      [
        7.748673160399447,
        4.9804621437985235,
        -0.6282066592405846,
        5.5122800391297595
      ],
      [
        -1.560819282949589,
        -0.6282066592405846,
        1.379052322701346,
        -0.39679741004139596
      ],
      [
        9.62070409032144,
        5.5122800391297595,
        -0.396797410041396,
        16.97471711484811
      ]
    ],
    "eigeneval": 158,
    "gen": 160
  },
  "best_weights_blue": [
    0.05575333638520706,
    0.4292143207645087,
    0.4771776454849565,
    0.0378546973653278
  ],
  "best_fitness_blue": -0.22
}